#include <stdio.h>

int main() {
    int var0 = 31;
    int var1 = 90;
    int var2 = 84;
    int var3 = 36;
    int var4 = 86;
    int var5 = 89;
    int var6 = 4;
    int var7 = 73;
    int var8 = 7;
    int var9 = 25;
    int var10 = 12;
    int var11 = 51;
    int var12 = 29;
    int var13 = 9;
    int var14 = 16;
    int var15 = 81;
    int var16 = 35;
    int var17 = 74;
    int var18 = 81;
    int var19 = 58;
    int var20 = 50;
    int var21 = 74;
    int var22 = 67;
    int var23 = 33;
    int var24 = 45;
    int var25 = 57;
    int var26 = 75;
    int var27 = 29;
    int var28 = 85;
    int var29 = 75;
    int var30 = 50;
    int var31 = 81;
    int var32 = 73;
    int var33 = 17;
    int var34 = 8;
    int var35 = 38;
    int var36 = 23;
    int var37 = 35;
    int var38 = 55;
    int var39 = 82;
    int var40 = 23;
    int var41 = 40;
    int var42 = 73;
    int var43 = 60;
    int var44 = 40;
    int var45 = 46;
    int var46 = 75;
    int var47 = 81;
    int var48 = 12;
    int var49 = 88;

    var47 = var47 - var20;
    var47 = 20;
    var25 = var25 / var16;
    var25 = 87;
    var36 = var36 - var35;
    var36 = 55;
    var45 = var45 + var23;
    var45 = 7;
    var47 = var47 / var28;
    var47 = 77;
    var17 = var17 - var7;
    var17 = 28;
    var43 = var43 - var35;
    var43 = 77;
    var9 = var9 - var49;
    var9 = 43;
    var47 = var47 - var6;
    var47 = 3;
    var35 = var35 * var42;
    var35 = 40;
    var6 = var6 + var23;
    var6 = 59;
    var13 = var13 - var47;
    var13 = 38;
    var44 = var44 - var37;
    var44 = 32;
    var39 = var39 - var2;
    var39 = 77;
    var21 = var21 - var12;
    var21 = 72;
    var5 = var5 + var10;
    var5 = 29;
    var42 = var42 * var48;
    var42 = 77;
    var25 = var25 / var41;
    var25 = 48;
    var22 = var22 - var38;
    var22 = 77;
    var14 = var14 + var46;
    var14 = 89;
    var46 = var46 / var26;
    var46 = 93;
    var37 = var37 - var5;
    var37 = 36;
    var20 = var20 - var16;
    var20 = 2;
    var11 = var11 + var21;
    var11 = 34;
    var19 = var19 + var12;
    var19 = 48;
    var4 = var4 * var49;
    var4 = 5;
    var0 = var0 - var40;
    var0 = 89;
    var20 = var20 - var2;
    var20 = 71;
    var45 = var45 + var42;
    var45 = 18;
    var25 = var25 * var18;
    var25 = 39;
    var40 = var40 + var45;
    var40 = 20;
    var35 = var35 + var21;
    var35 = 20;
    var44 = var44 + var24;
    var44 = 84;
    var46 = var46 - var46;
    var46 = 28;
    var36 = var36 - var42;
    var36 = 50;
    var42 = var42 - var20;
    var42 = 69;
    var4 = var4 - var12;
    var4 = 10;
    var9 = var9 * var42;
    var9 = 35;
    var49 = var49 + var46;
    var49 = 55;
    var15 = var15 / var26;
    var15 = 72;
    var22 = var22 * var32;
    var22 = 27;
    var10 = var10 * var33;
    var10 = 16;
    var28 = var28 - var24;
    var28 = 50;
    var41 = var41 + var38;
    var41 = 48;
    var9 = var9 * var34;
    var9 = 4;
    var43 = var43 / var21;
    var43 = 45;
    var16 = var16 * var13;
    var16 = 74;
    var7 = var7 + var34;
    var7 = 28;
    var19 = var19 + var25;
    var19 = 2;
    var17 = var17 * var4;
    var17 = 61;
    var22 = var22 / var6;
    var22 = 65;
    var34 = var34 * var35;
    var34 = 43;
    var0 = var0 + var7;
    var0 = 1;
    var28 = var28 - var26;
    var28 = 26;
    var25 = var25 + var26;
    var25 = 100;
    var12 = var12 + var14;
    var12 = 53;
    var1 = var1 - var11;
    var1 = 84;
    var24 = var24 - var3;
    var24 = 37;
    var15 = var15 - var19;
    var15 = 84;
    var18 = var18 / var32;
    var18 = 76;
    var38 = var38 + var23;
    var38 = 96;
    var38 = var38 / var15;
    var38 = 72;
    var25 = var25 * var17;
    var25 = 39;
    var40 = var40 - var19;
    var40 = 86;
    var33 = var33 - var33;
    var33 = 98;
    var2 = var2 + var45;
    var2 = 27;
    var33 = var33 * var43;
    var33 = 73;
    var42 = var42 * var22;
    var42 = 84;
    var15 = var15 - var22;
    var15 = 5;
    var38 = var38 / var47;
    var38 = 68;
    var30 = var30 + var19;
    var30 = 95;
    var2 = var2 - var44;
    var2 = 52;
    var4 = var4 / var8;
    var4 = 77;
    var21 = var21 - var38;
    var21 = 34;
    var17 = var17 / var29;
    var17 = 5;
    var42 = var42 * var6;
    var42 = 24;
    var26 = var26 + var22;
    var26 = 13;
    var28 = var28 - var23;
    var28 = 49;
    var41 = var41 - var40;
    var41 = 53;
    var14 = var14 * var4;
    var14 = 49;
    var8 = var8 + var23;
    var8 = 38;
    var41 = var41 / var9;
    var41 = 25;
    var36 = var36 / var37;
    var36 = 68;
    var42 = var42 * var31;
    var42 = 34;
    var24 = var24 + var9;
    var24 = 64;
    var6 = var6 - var9;
    var6 = 67;
    var44 = var44 / var18;
    var44 = 49;
    var22 = var22 + var38;
    var22 = 7;
    var20 = var20 + var30;
    var20 = 16;
    var43 = var43 / var17;
    var43 = 33;
    var6 = var6 - var4;
    var6 = 43;
    var23 = var23 * var33;
    var23 = 83;
    var37 = var37 - var0;
    var37 = 92;
    var33 = var33 - var42;
    var33 = 27;
    var30 = var30 * var26;
    var30 = 71;
    var40 = var40 * var9;
    var40 = 68;
    var37 = var37 * var31;
    var37 = 57;
    var6 = var6 * var30;
    var6 = 92;
    var4 = var4 - var45;
    var4 = 72;
    var37 = var37 * var23;
    var37 = 24;
    var0 = var0 / var8;
    var0 = 12;
    var16 = var16 + var0;
    var16 = 50;
    var22 = var22 + var45;
    var22 = 79;
    var29 = var29 - var8;
    var29 = 11;
    var19 = var19 / var34;
    var19 = 20;
    var27 = var27 * var1;
    var27 = 39;
    var3 = var3 - var0;
    var3 = 23;
    var11 = var11 * var9;
    var11 = 44;
    var33 = var33 + var19;
    var33 = 53;
    var3 = var3 + var26;
    var3 = 7;
    var49 = var49 / var29;
    var49 = 2;
    var9 = var9 * var11;
    var9 = 97;
    var23 = var23 + var27;
    var23 = 28;
    var13 = var13 + var1;
    var13 = 85;
    var47 = var47 / var28;
    var47 = 66;
    var33 = var33 + var0;
    var33 = 94;
    var42 = var42 / var42;
    var42 = 66;
    var38 = var38 - var16;
    var38 = 29;
    var35 = var35 - var39;
    var35 = 82;
    var0 = var0 / var20;
    var0 = 62;
    var22 = var22 - var38;
    var22 = 60;
    var21 = var21 - var26;
    var21 = 49;
    var19 = var19 + var35;
    var19 = 49;
    var15 = var15 / var42;
    var15 = 65;
    var37 = var37 / var24;
    var37 = 85;
    var33 = var33 / var36;
    var33 = 9;
    var15 = var15 / var9;
    var15 = 64;
    var14 = var14 + var33;
    var14 = 8;
    var8 = var8 / var44;
    var8 = 25;
    var13 = var13 + var45;
    var13 = 77;
    var47 = var47 - var9;
    var47 = 7;
    var28 = var28 / var42;
    var28 = 43;
    var46 = var46 - var19;
    var46 = 83;
    var32 = var32 + var6;
    var32 = 98;
    var17 = var17 * var12;
    var17 = 87;
    var1 = var1 / var35;
    var1 = 96;
    var9 = var9 / var13;
    var9 = 93;
    var28 = var28 / var1;
    var28 = 5;
    var20 = var20 - var35;
    var20 = 62;
    var24 = var24 + var9;
    var24 = 85;
    var47 = var47 + var49;
    var47 = 17;
    var37 = var37 * var22;
    var37 = 57;
    var23 = var23 + var35;
    var23 = 96;
    var14 = var14 * var42;
    var14 = 98;
    var45 = var45 - var0;
    var45 = 86;
    var13 = var13 / var40;
    var13 = 9;
    var39 = var39 + var30;
    var39 = 10;
    var30 = var30 / var40;
    var30 = 91;
    var40 = var40 / var13;
    var40 = 6;
    var0 = var0 / var33;
    var0 = 7;
    var12 = var12 - var34;
    var12 = 21;
    var36 = var36 - var29;
    var36 = 71;
    var26 = var26 - var49;
    var26 = 82;
    var6 = var6 - var14;
    var6 = 15;
    var7 = var7 * var16;
    var7 = 34;
    var42 = var42 / var10;
    var42 = 65;
    var32 = var32 * var14;
    var32 = 31;
    var23 = var23 + var16;
    var23 = 22;
    var10 = var10 - var9;
    var10 = 5;
    var29 = var29 + var6;
    var29 = 38;
    var28 = var28 / var47;
    var28 = 50;
    var38 = var38 - var5;
    var38 = 52;
    var25 = var25 * var16;
    var25 = 73;
    var25 = var25 + var19;
    var25 = 21;
    var32 = var32 * var7;
    var32 = 33;
    var48 = var48 - var9;
    var48 = 10;
    var17 = var17 - var9;
    var17 = 90;
    var39 = var39 / var1;
    var39 = 92;
    var49 = var49 - var20;
    var49 = 45;
    var18 = var18 - var3;
    var18 = 44;
    var41 = var41 + var47;
    var41 = 10;
    var5 = var5 * var15;
    var5 = 65;
    var49 = var49 * var10;
    var49 = 20;
    var25 = var25 / var26;
    var25 = 59;
    var6 = var6 + var29;
    var6 = 19;
    var28 = var28 * var25;
    var28 = 97;
    var34 = var34 / var5;
    var34 = 93;
    var40 = var40 + var13;
    var40 = 0;
    var39 = var39 / var47;
    var39 = 21;
    var34 = var34 + var27;
    var34 = 43;
    var23 = var23 * var31;
    var23 = 33;
    var31 = var31 - var14;
    var31 = 5;
    var4 = var4 + var32;
    var4 = 61;
    var0 = var0 - var17;
    var0 = 77;
    var0 = var0 / var31;
    var0 = 0;
    var7 = var7 - var15;
    var7 = 22;
    var17 = var17 + var3;
    var17 = 83;
    var39 = var39 / var36;
    var39 = 100;
    var33 = var33 * var7;
    var33 = 80;
    var42 = var42 * var29;
    var42 = 26;
    var48 = var48 * var22;
    var48 = 29;
    var17 = var17 * var30;
    var17 = 28;
    var10 = var10 * var15;
    var10 = 48;
    var49 = var49 * var12;
    var49 = 31;
    var28 = var28 - var10;
    var28 = 38;
    var36 = var36 * var10;
    var36 = 45;
    var28 = var28 / var18;
    var28 = 82;
    var43 = var43 * var7;
    var43 = 5;
    var30 = var30 + var27;
    var30 = 29;
    var39 = var39 + var28;
    var39 = 11;
    var6 = var6 * var2;
    var6 = 64;
    var19 = var19 - var15;
    var19 = 70;
    var41 = var41 / var47;
    var41 = 65;
    var20 = var20 + var28;
    var20 = 80;
    var46 = var46 / var42;
    var46 = 91;
    var33 = var33 / var13;
    var33 = 75;
    var7 = var7 - var27;
    var7 = 0;
    var24 = var24 / var22;
    var24 = 52;
    var5 = var5 - var19;
    var5 = 44;
    var16 = var16 / var38;
    var16 = 79;
    var47 = var47 * var25;
    var47 = 50;
    var7 = var7 * var46;
    var7 = 77;
    var30 = var30 * var28;
    var30 = 52;
    var4 = var4 - var15;
    var4 = 30;
    var34 = var34 + var15;
    var34 = 72;
    var6 = var6 * var45;
    var6 = 23;
    var11 = var11 - var20;
    var11 = 37;
    var9 = var9 - var40;
    var9 = 13;
    var15 = var15 / var29;
    var15 = 12;
    var30 = var30 + var11;
    var30 = 45;
    var21 = var21 + var23;
    var21 = 17;
    var13 = var13 * var22;
    var13 = 13;
    var47 = var47 + var49;
    var47 = 37;
    var49 = var49 / var5;
    var49 = 84;
    var18 = var18 + var47;
    var18 = 47;
    var0 = var0 * var24;
    var0 = 5;
    var16 = var16 / var13;
    var16 = 25;
    var19 = var19 + var4;
    var19 = 60;
    var35 = var35 - var39;
    var35 = 37;
    var6 = var6 - var47;
    var6 = 18;
    var31 = var31 / var34;
    var31 = 62;
    var12 = var12 / var45;
    var12 = 30;
    var4 = var4 - var35;
    var4 = 6;
    var30 = var30 * var34;
    var30 = 23;
    var1 = var1 - var23;
    var1 = 97;
    var13 = var13 / var0;
    var13 = 68;
    var45 = var45 + var48;
    var45 = 38;
    var4 = var4 + var31;
    var4 = 40;
    var42 = var42 - var28;
    var42 = 27;
    var14 = var14 + var33;
    var14 = 2;
    var28 = var28 - var43;
    var28 = 1;
    var30 = var30 + var47;
    var30 = 43;
    var40 = var40 * var40;
    var40 = 65;
    var21 = var21 - var45;
    var21 = 56;
    var45 = var45 / var15;
    var45 = 87;
    var48 = var48 / var18;
    var48 = 39;
    var0 = var0 - var0;
    var0 = 78;
    var43 = var43 - var33;
    var43 = 32;
    var34 = var34 - var49;
    var34 = 10;
    var28 = var28 * var1;
    var28 = 23;
    var37 = var37 * var6;
    var37 = 43;
    var41 = var41 + var10;
    var41 = 56;
    var42 = var42 + var20;
    var42 = 19;
    var24 = var24 + var7;
    var24 = 5;
    var3 = var3 + var10;
    var3 = 96;
    var30 = var30 * var2;
    var30 = 22;
    var38 = var38 / var43;
    var38 = 93;
    var45 = var45 + var32;
    var45 = 82;
    var37 = var37 * var6;
    var37 = 78;
    var19 = var19 - var30;
    var19 = 27;
    var25 = var25 / var31;
    var25 = 4;
    var22 = var22 / var29;
    var22 = 32;
    var18 = var18 / var49;
    var18 = 21;
    var11 = var11 / var38;
    var11 = 53;
    var34 = var34 * var26;
    var34 = 53;
    var37 = var37 * var20;
    var37 = 70;
    var15 = var15 - var9;
    var15 = 20;
    var49 = var49 + var37;
    var49 = 32;
    var6 = var6 / var6;
    var6 = 4;
    var26 = var26 + var8;
    var26 = 67;
    var5 = var5 - var19;
    var5 = 87;
    var9 = var9 + var2;
    var9 = 58;
    var27 = var27 / var27;
    var27 = 38;
    var40 = var40 + var12;
    var40 = 32;
    var2 = var2 + var21;
    var2 = 38;
    var20 = var20 * var39;
    var20 = 46;
    var41 = var41 - var35;
    var41 = 54;
    var14 = var14 / var16;
    var14 = 2;
    var35 = var35 * var42;
    var35 = 61;
    var32 = var32 * var47;
    var32 = 7;
    var18 = var18 + var20;
    var18 = 10;
    var9 = var9 / var4;
    var9 = 72;
    var38 = var38 * var35;
    var38 = 88;
    var23 = var23 + var42;
    var23 = 7;
    var18 = var18 - var10;
    var18 = 11;
    var46 = var46 + var21;
    var46 = 6;
    var13 = var13 + var33;
    var13 = 25;
    var22 = var22 - var37;
    var22 = 92;
    var25 = var25 / var49;
    var25 = 31;
    var14 = var14 * var4;
    var14 = 38;
    var13 = var13 / var33;
    var13 = 24;
    var16 = var16 - var20;
    var16 = 25;
    var7 = var7 / var6;
    var7 = 70;
    var45 = var45 / var32;
    var45 = 42;
    var10 = var10 * var17;
    var10 = 83;
    var27 = var27 - var23;
    var27 = 68;
    var8 = var8 - var25;
    var8 = 85;
    var41 = var41 + var36;
    var41 = 78;
    var2 = var2 / var22;
    var2 = 40;
    var15 = var15 - var12;
    var15 = 74;
    var3 = var3 * var40;
    var3 = 49;
    var19 = var19 + var17;
    var19 = 7;
    var6 = var6 / var13;
    var6 = 67;
    var9 = var9 / var40;
    var9 = 50;
    var14 = var14 * var34;
    var14 = 64;
    var39 = var39 / var7;
    var39 = 69;
    var49 = var49 + var13;
    var49 = 30;
    var6 = var6 / var1;
    var6 = 34;
    var6 = var6 + var13;
    var6 = 17;
    var17 = var17 + var19;
    var17 = 0;
    var15 = var15 - var0;
    var15 = 98;
    var41 = var41 + var6;
    var41 = 27;
    var24 = var24 + var4;
    var24 = 64;
    var6 = var6 * var15;
    var6 = 47;
    var15 = var15 - var14;
    var15 = 27;
    var2 = var2 - var1;
    var2 = 26;
    var22 = var22 * var41;
    var22 = 15;
    var6 = var6 + var24;
    var6 = 34;
    var43 = var43 + var36;
    var43 = 49;
    var44 = var44 * var25;
    var44 = 74;
    var29 = var29 / var35;
    var29 = 86;
    var3 = var3 * var47;
    var3 = 69;
    var6 = var6 / var28;
    var6 = 86;
    var10 = var10 + var7;
    var10 = 100;
    var37 = var37 / var26;
    var37 = 26;
    var41 = var41 + var48;
    var41 = 92;
    var28 = var28 + var33;
    var28 = 8;
    var21 = var21 + var19;
    var21 = 92;
    var32 = var32 + var16;
    var32 = 61;
    var29 = var29 / var6;
    var29 = 68;
    var10 = var10 - var24;
    var10 = 21;
    var8 = var8 + var37;
    var8 = 6;
    var30 = var30 - var16;
    var30 = 3;
    var0 = var0 - var10;
    var0 = 16;
    var8 = var8 + var41;
    var8 = 55;
    var33 = var33 + var7;
    var33 = 76;
    var37 = var37 * var40;
    var37 = 39;
    var31 = var31 - var4;
    var31 = 93;
    var38 = var38 * var1;
    var38 = 23;
    var7 = var7 * var31;
    var7 = 50;
    var18 = var18 / var1;
    var18 = 40;
    var10 = var10 / var10;
    var10 = 77;
    var32 = var32 / var18;
    var32 = 18;
    var21 = var21 * var44;
    var21 = 49;
    var30 = var30 + var20;
    var30 = 87;
    var20 = var20 / var28;
    var20 = 100;
    var6 = var6 / var0;
    var6 = 69;
    var12 = var12 - var26;
    var12 = 99;
    var44 = var44 / var49;
    var44 = 45;
    var41 = var41 / var23;
    var41 = 27;
    var28 = var28 - var2;
    var28 = 42;
    var48 = var48 * var15;
    var48 = 97;
    var44 = var44 * var14;
    var44 = 75;
    var46 = var46 / var43;
    var46 = 7;
    var35 = var35 * var16;
    var35 = 64;
    var35 = var35 * var35;
    var35 = 77;
    var25 = var25 / var0;
    var25 = 74;
    var29 = var29 + var26;
    var29 = 53;
    var20 = var20 / var42;
    var20 = 35;
    var40 = var40 + var29;
    var40 = 58;
    var19 = var19 * var42;
    var19 = 73;
    var47 = var47 / var39;
    var47 = 62;
    var27 = var27 * var48;
    var27 = 46;
    var42 = var42 * var20;
    var42 = 14;
    var40 = var40 - var31;
    var40 = 76;
    var23 = var23 - var28;
    var23 = 32;
    var26 = var26 / var3;
    var26 = 24;
    var42 = var42 - var24;
    var42 = 12;
    var30 = var30 + var25;
    var30 = 98;
    var0 = var0 + var42;
    var0 = 86;
    var39 = var39 - var34;
    var39 = 7;
    var45 = var45 * var39;
    var45 = 88;
    var23 = var23 * var40;
    var23 = 29;
    var6 = var6 - var13;
    var6 = 19;
    var21 = var21 * var47;
    var21 = 53;
    var44 = var44 + var36;
    var44 = 61;
    var47 = var47 * var41;
    var47 = 87;
    var40 = var40 / var41;
    var40 = 48;
    var46 = var46 - var35;
    var46 = 86;
    var24 = var24 + var37;
    var24 = 41;
    var49 = var49 + var42;
    var49 = 2;
    var35 = var35 - var12;
    var35 = 89;
    var13 = var13 * var13;
    var13 = 54;
    var42 = var42 - var33;
    var42 = 65;
    var23 = var23 + var44;
    var23 = 85;
    var32 = var32 / var34;
    var32 = 64;
    var18 = var18 * var36;
    var18 = 66;
    var5 = var5 / var38;
    var5 = 4;
    var1 = var1 + var39;
    var1 = 84;
    var6 = var6 * var22;
    var6 = 76;
    var30 = var30 + var10;
    var30 = 0;
    var48 = var48 * var21;
    var48 = 62;
    var3 = var3 + var17;
    var3 = 76;
    var27 = var27 + var11;
    var27 = 81;
    var46 = var46 + var16;
    var46 = 86;
    var11 = var11 * var12;
    var11 = 14;
    var46 = var46 / var48;
    var46 = 16;
    var8 = var8 / var13;
    var8 = 41;
    var36 = var36 + var46;
    var36 = 0;
    var14 = var14 + var21;
    var14 = 23;
    var49 = var49 / var31;
    var49 = 10;
    var23 = var23 - var1;
    var23 = 34;
    var6 = var6 - var37;
    var6 = 47;
    var43 = var43 * var39;
    var43 = 18;
    var28 = var28 + var10;
    var28 = 21;
    var2 = var2 / var20;
    var2 = 8;
    var10 = var10 - var49;
    var10 = 3;
    var16 = var16 * var5;
    var16 = 71;
    var44 = var44 / var18;
    var44 = 62;
    var42 = var42 * var40;
    var42 = 26;
    var31 = var31 - var13;
    var31 = 59;
    var49 = var49 / var19;
    var49 = 72;
    var40 = var40 - var37;
    var40 = 24;
    var40 = var40 - var7;
    var40 = 31;
    var46 = var46 + var9;
    var46 = 100;
    var20 = var20 + var0;
    var20 = 81;
    var28 = var28 - var8;
    var28 = 56;
    var32 = var32 / var3;
    var32 = 68;
    var22 = var22 - var36;
    var22 = 78;
    var34 = var34 - var17;
    var34 = 96;
    var21 = var21 * var49;
    var21 = 74;
    var1 = var1 - var21;
    var1 = 81;
    var46 = var46 * var45;
    var46 = 52;
    var1 = var1 + var43;
    var1 = 83;
    var10 = var10 - var40;
    var10 = 12;
    var8 = var8 - var32;
    var8 = 2;
    var10 = var10 + var20;
    var10 = 99;
    var49 = var49 + var42;
    var49 = 29;
    var5 = var5 - var28;
    var5 = 13;
    var4 = var4 - var40;
    var4 = 99;
    var5 = var5 + var1;
    var5 = 20;
    var5 = var5 / var14;
    var5 = 36;
    var9 = var9 * var1;
    var9 = 9;
    var37 = var37 - var34;
    var37 = 41;
    var21 = var21 - var49;
    var21 = 94;
    var36 = var36 * var14;
    var36 = 4;
    var38 = var38 - var16;
    var38 = 2;
    var13 = var13 * var39;
    var13 = 73;
    var9 = var9 - var11;
    var9 = 58;
    var10 = var10 * var6;
    var10 = 64;
    var6 = var6 / var32;
    var6 = 41;
    var29 = var29 / var15;
    var29 = 49;
    var16 = var16 - var5;
    var16 = 63;
    var19 = var19 + var13;
    var19 = 8;
    var8 = var8 / var7;
    var8 = 42;
    var3 = var3 + var0;
    var3 = 55;
    var49 = var49 + var34;
    var49 = 82;
    var17 = var17 * var11;
    var17 = 40;
    var26 = var26 - var33;
    var26 = 83;
    var28 = var28 + var16;
    var28 = 77;
    var36 = var36 + var5;
    var36 = 11;
    var36 = var36 * var35;
    var36 = 22;
    var17 = var17 - var9;
    var17 = 75;
    var6 = var6 + var24;
    var6 = 37;
    var49 = var49 + var6;
    var49 = 51;
    var40 = var40 - var15;
    var40 = 65;
    var32 = var32 + var43;
    var32 = 10;
    var4 = var4 * var27;
    var4 = 100;
    var41 = var41 / var31;
    var41 = 32;
    var10 = var10 / var43;
    var10 = 69;
    var21 = var21 - var10;
    var21 = 57;
    var6 = var6 - var49;
    var6 = 81;
    var20 = var20 + var48;
    var20 = 27;
    var48 = var48 - var39;
    var48 = 56;
    var47 = var47 - var20;
    var47 = 64;
    var12 = var12 + var25;
    var12 = 81;
    var24 = var24 + var48;
    var24 = 54;
    var32 = var32 + var20;
    var32 = 18;
    var34 = var34 - var40;
    var34 = 81;
    var45 = var45 - var5;
    var45 = 12;
    var30 = var30 - var25;
    var30 = 56;
    var5 = var5 * var11;
    var5 = 62;
    var24 = var24 + var46;
    var24 = 44;
    var39 = var39 * var15;
    var39 = 18;
    var28 = var28 / var24;
    var28 = 86;
    var37 = var37 / var36;
    var37 = 19;
    var47 = var47 / var12;
    var47 = 37;
    var7 = var7 + var25;
    var7 = 78;
    var33 = var33 / var47;
    var33 = 99;
    var17 = var17 * var6;
    var17 = 7;
    var31 = var31 * var3;
    var31 = 6;
    var46 = var46 - var38;
    var46 = 38;
    var30 = var30 + var2;
    var30 = 7;
    var24 = var24 + var26;
    var24 = 49;
    var3 = var3 * var21;
    var3 = 20;
    var23 = var23 - var8;
    var23 = 22;
    var0 = var0 * var44;
    var0 = 42;
    var4 = var4 - var39;
    var4 = 66;
    var48 = var48 / var22;
    var48 = 5;
    var14 = var14 + var20;
    var14 = 81;
    var25 = var25 + var36;
    var25 = 97;
    var12 = var12 * var31;
    var12 = 71;
    var3 = var3 * var31;
    var3 = 90;
    var26 = var26 * var46;
    var26 = 49;
    var0 = var0 / var42;
    var0 = 64;
    var26 = var26 + var29;
    var26 = 60;
    var37 = var37 / var28;
    var37 = 41;
    var24 = var24 - var33;
    var24 = 98;
    var45 = var45 / var21;
    var45 = 74;
    var37 = var37 + var1;
    var37 = 64;
    var1 = var1 / var23;
    var1 = 96;
    var12 = var12 / var12;
    var12 = 3;
    var38 = var38 - var33;
    var38 = 3;
    var34 = var34 - var0;
    var34 = 84;
    var13 = var13 / var43;
    var13 = 74;
    var43 = var43 / var9;
    var43 = 27;
    var45 = var45 / var0;
    var45 = 32;
    var41 = var41 + var12;
    var41 = 88;
    var41 = var41 / var38;
    var41 = 98;
    var10 = var10 + var28;
    var10 = 37;
    var23 = var23 / var13;
    var23 = 84;
    var20 = var20 + var10;
    var20 = 51;
    var29 = var29 / var11;
    var29 = 55;
    var46 = var46 + var33;
    var46 = 66;
    var24 = var24 - var36;
    var24 = 20;
    var25 = var25 * var31;
    var25 = 18;
    var16 = var16 + var6;
    var16 = 98;
    var36 = var36 + var33;
    var36 = 49;
    var9 = var9 + var0;
    var9 = 94;
    var37 = var37 - var27;
    var37 = 27;
    var27 = var27 * var12;
    var27 = 54;
    var3 = var3 * var12;
    var3 = 78;
    var39 = var39 * var3;
    var39 = 24;
    var20 = var20 * var0;
    var20 = 23;
    var36 = var36 / var15;
    var36 = 44;
    var12 = var12 + var35;
    var12 = 92;
    var48 = var48 * var6;
    var48 = 29;
    var6 = var6 + var34;
    var6 = 5;
    var8 = var8 / var13;
    var8 = 82;
    var14 = var14 * var46;
    var14 = 85;
    var17 = var17 * var0;
    var17 = 99;
    var15 = var15 * var48;
    var15 = 51;
    var26 = var26 * var0;
    var26 = 83;
    var38 = var38 - var25;
    var38 = 35;
    var36 = var36 - var35;
    var36 = 96;
    var31 = var31 / var11;
    var31 = 4;
    var7 = var7 + var24;
    var7 = 2;
    var4 = var4 - var42;
    var4 = 87;
    var8 = var8 / var26;
    var8 = 20;
    var35 = var35 * var48;
    var35 = 37;
    var32 = var32 + var20;
    var32 = 1;
    var43 = var43 / var12;
    var43 = 17;
    var5 = var5 * var34;
    var5 = 9;
    var4 = var4 / var35;
    var4 = 91;
    var20 = var20 + var43;
    var20 = 61;
    var6 = var6 + var30;
    var6 = 36;
    var42 = var42 * var8;
    var42 = 93;
    var3 = var3 - var7;
    var3 = 10;
    var23 = var23 + var12;
    var23 = 28;
    var42 = var42 - var16;
    var42 = 6;
    var20 = var20 + var39;
    var20 = 79;
    var5 = var5 * var34;
    var5 = 31;
    var5 = var5 / var40;
    var5 = 98;
    var6 = var6 - var26;
    var6 = 2;
    var12 = var12 - var36;
    var12 = 15;
    var44 = var44 + var18;
    var44 = 43;
    var29 = var29 * var4;
    var29 = 12;
    var7 = var7 + var35;
    var7 = 56;
    var31 = var31 / var6;
    var31 = 19;
    var34 = var34 * var35;
    var34 = 80;
    var33 = var33 * var40;
    var33 = 7;
    var49 = var49 / var27;
    var49 = 43;
    var14 = var14 * var38;
    var14 = 93;
    var6 = var6 * var15;
    var6 = 13;
    var20 = var20 + var21;
    var20 = 40;
    var9 = var9 + var48;
    var9 = 58;
    var8 = var8 * var3;
    var8 = 35;
    var2 = var2 - var11;
    var2 = 75;
    var45 = var45 + var44;
    var45 = 76;
    var36 = var36 / var35;
    var36 = 100;
    var13 = var13 + var12;
    var13 = 47;
    var47 = var47 - var31;
    var47 = 52;
    var46 = var46 - var48;
    var46 = 23;
    var29 = var29 - var28;
    var29 = 76;
    var42 = var42 + var16;
    var42 = 23;
    var9 = var9 / var46;
    var9 = 68;
    var14 = var14 - var16;
    var14 = 78;
    var39 = var39 + var48;
    var39 = 76;
    var5 = var5 / var37;
    var5 = 25;
    var47 = var47 / var23;
    var47 = 39;
    var2 = var2 * var35;
    var2 = 6;
    var28 = var28 / var32;
    var28 = 63;
    var44 = var44 - var8;
    var44 = 42;
    var31 = var31 / var42;
    var31 = 55;
    var41 = var41 * var7;
    var41 = 26;
    var5 = var5 + var28;
    var5 = 51;
    var41 = var41 / var5;
    var41 = 14;
    var0 = var0 / var25;
    var0 = 36;
    var14 = var14 * var15;
    var14 = 56;
    var41 = var41 * var41;
    var41 = 43;
    var26 = var26 + var13;
    var26 = 3;
    var17 = var17 + var1;
    var17 = 21;
    var35 = var35 + var4;
    var35 = 14;
    var9 = var9 / var15;
    var9 = 70;
    var47 = var47 * var42;
    var47 = 69;
    var47 = var47 - var0;
    var47 = 52;
    var15 = var15 * var18;
    var15 = 30;
    var27 = var27 - var22;
    var27 = 31;
    var5 = var5 + var41;
    var5 = 33;
    var28 = var28 + var8;
    var28 = 22;
    var42 = var42 + var25;
    var42 = 61;
    var13 = var13 + var41;
    var13 = 82;
    var1 = var1 / var36;
    var1 = 33;
    var30 = var30 - var19;
    var30 = 87;
    var22 = var22 / var35;
    var22 = 79;
    var27 = var27 / var31;
    var27 = 66;
    var22 = var22 + var37;
    var22 = 16;
    var38 = var38 - var34;
    var38 = 88;
    var6 = var6 - var48;
    var6 = 27;
    var30 = var30 + var42;
    var30 = 51;
    var0 = var0 * var32;
    var0 = 11;
    var27 = var27 / var4;
    var27 = 86;
    var29 = var29 / var27;
    var29 = 100;
    var1 = var1 * var46;
    var1 = 8;
    var42 = var42 - var9;
    var42 = 78;
    var12 = var12 / var30;
    var12 = 67;
    var9 = var9 / var49;
    var9 = 75;
    var29 = var29 / var23;
    var29 = 51;
    var6 = var6 - var39;
    var6 = 53;
    var41 = var41 * var1;
    var41 = 6;
    var10 = var10 / var36;
    var10 = 66;
    var13 = var13 + var35;
    var13 = 88;
    var3 = var3 / var31;
    var3 = 44;
    var29 = var29 / var43;
    var29 = 26;
    var18 = var18 / var2;
    var18 = 4;
    var35 = var35 / var24;
    var35 = 51;
    var49 = var49 * var8;
    var49 = 63;
    var23 = var23 + var44;
    var23 = 4;
    var45 = var45 - var7;
    var45 = 72;
    var11 = var11 * var30;
    var11 = 75;
    var42 = var42 - var43;
    var42 = 20;
    var3 = var3 - var23;
    var3 = 74;
    var19 = var19 / var32;
    var19 = 38;
    var7 = var7 + var6;
    var7 = 29;
    var12 = var12 * var0;
    var12 = 25;
    var45 = var45 / var48;
    var45 = 76;
    var10 = var10 * var46;
    var10 = 33;
    var20 = var20 - var18;
    var20 = 48;
    var1 = var1 - var19;
    var1 = 97;
    var27 = var27 - var0;
    var27 = 9;
    var21 = var21 * var26;
    var21 = 38;
    var48 = var48 + var31;
    var48 = 9;
    var48 = var48 * var12;
    var48 = 58;
    var21 = var21 + var47;
    var21 = 92;
    var49 = var49 / var11;
    var49 = 73;
    var45 = var45 + var41;
    var45 = 41;
    var0 = var0 * var6;
    var0 = 85;
    var11 = var11 - var0;
    var11 = 68;
    var6 = var6 * var28;
    var6 = 97;
    var30 = var30 + var38;
    var30 = 95;
    var47 = var47 * var25;
    var47 = 89;
    var18 = var18 + var24;
    var18 = 51;
    var38 = var38 / var16;
    var38 = 63;
    var16 = var16 / var41;
    var16 = 5;
    var14 = var14 / var34;
    var14 = 36;
    var6 = var6 / var3;
    var6 = 64;
    var32 = var32 - var23;
    var32 = 53;
    var34 = var34 / var29;
    var34 = 54;
    var48 = var48 / var2;
    var48 = 43;
    var31 = var31 + var21;
    var31 = 76;
    var24 = var24 * var8;
    var24 = 95;
    var33 = var33 * var31;
    var33 = 19;
    var17 = var17 * var44;
    var17 = 61;
    var46 = var46 / var9;
    var46 = 50;
    var9 = var9 / var40;
    var9 = 60;
    var0 = var0 * var9;
    var0 = 98;
    var40 = var40 / var31;
    var40 = 59;
    var17 = var17 * var22;
    var17 = 74;
    var10 = var10 + var36;
    var10 = 39;
    var0 = var0 - var6;
    var0 = 37;
    var35 = var35 - var3;
    var35 = 71;
    var32 = var32 - var41;
    var32 = 95;
    var20 = var20 + var36;
    var20 = 63;
    var33 = var33 / var17;
    var33 = 86;
    var38 = var38 * var10;
    var38 = 35;
    var0 = var0 * var4;
    var0 = 58;
    var11 = var11 / var43;
    var11 = 18;
    var47 = var47 / var7;
    var47 = 55;
    var40 = var40 / var49;
    var40 = 4;
    var9 = var9 / var42;
    var9 = 98;
    var25 = var25 * var25;
    var25 = 9;
    var31 = var31 + var1;
    var31 = 21;
    var36 = var36 - var31;
    var36 = 8;
    var26 = var26 * var42;
    var26 = 73;
    var37 = var37 / var35;
    var37 = 87;
    var49 = var49 + var12;
    var49 = 87;
    var40 = var40 / var19;
    var40 = 5;
    var1 = var1 + var30;
    var1 = 64;
    var20 = var20 / var1;
    var20 = 39;
    var31 = var31 - var11;
    var31 = 44;
    var18 = var18 + var15;
    var18 = 97;
    var39 = var39 / var9;
    var39 = 77;
    var12 = var12 + var34;
    var12 = 79;
    var32 = var32 + var24;
    var32 = 40;
    var12 = var12 + var5;
    var12 = 29;
    var0 = var0 * var43;
    var0 = 93;
    var39 = var39 / var18;
    var39 = 52;
    var3 = var3 + var39;
    var3 = 81;
    var42 = var42 - var32;
    var42 = 56;
    var37 = var37 * var45;
    var37 = 97;
    var21 = var21 / var12;
    var21 = 39;
    var2 = var2 * var11;
    var2 = 68;
    var6 = var6 - var10;
    var6 = 50;
    var7 = var7 * var21;
    var7 = 80;
    var21 = var21 * var21;
    var21 = 37;
    var41 = var41 - var15;
    var41 = 31;
    var11 = var11 - var43;
    var11 = 39;
    var38 = var38 + var7;
    var38 = 6;
    var16 = var16 * var12;
    var16 = 16;
    var31 = var31 / var6;
    var31 = 68;
    var20 = var20 * var36;
    var20 = 8;
    var45 = var45 / var29;
    var45 = 91;
    var4 = var4 - var20;
    var4 = 93;
    var37 = var37 - var49;
    var37 = 62;
    var41 = var41 - var12;
    var41 = 50;
    var38 = var38 / var13;
    var38 = 48;
    var32 = var32 / var31;
    var32 = 74;
    var42 = var42 - var25;
    var42 = 96;
    var29 = var29 / var41;
    var29 = 33;
    var2 = var2 / var8;
    var2 = 57;
    var29 = var29 / var34;
    var29 = 7;
    var17 = var17 / var4;
    var17 = 44;
    var1 = var1 / var27;
    var1 = 0;
    var35 = var35 / var12;
    var35 = 74;
    var5 = var5 - var19;
    var5 = 19;
    var10 = var10 - var8;
    var10 = 54;
    var46 = var46 + var16;
    var46 = 62;
    var16 = var16 - var11;
    var16 = 3;
    var3 = var3 + var27;
    var3 = 40;
    var46 = var46 * var49;
    var46 = 67;
    var5 = var5 + var42;
    var5 = 65;
    var8 = var8 - var39;
    var8 = 53;
    var28 = var28 - var12;
    var28 = 61;
    var47 = var47 + var8;
    var47 = 17;
    var2 = var2 - var44;
    var2 = 76;
    var22 = var22 / var6;
    var22 = 35;
    var4 = var4 * var21;
    var4 = 57;
    var13 = var13 + var49;
    var13 = 45;
    var1 = var1 / var47;
    var1 = 0;
    var39 = var39 - var30;
    var39 = 17;
    var34 = var34 + var33;
    var34 = 27;
    var27 = var27 / var24;
    var27 = 32;
    var8 = var8 * var24;
    var8 = 32;
    var0 = var0 - var48;
    var0 = 35;
    var28 = var28 / var35;
    var28 = 81;
    var25 = var25 - var15;
    var25 = 12;
    var25 = var25 + var18;
    var25 = 84;
    var32 = var32 + var1;
    var32 = 72;
    var26 = var26 / var7;
    var26 = 14;
    var4 = var4 * var49;
    var4 = 91;
    var15 = var15 * var23;
    var15 = 45;
    var15 = var15 - var4;
    var15 = 10;
    var11 = var11 / var3;
    var11 = 91;
    var43 = var43 / var31;
    var43 = 48;
    var5 = var5 / var11;
    var5 = 91;
    var41 = var41 - var8;
    var41 = 69;
    var23 = var23 / var35;
    var23 = 33;
    var4 = var4 + var16;
    var4 = 20;
    var1 = var1 + var42;
    var1 = 92;
    var32 = var32 / var33;
    var32 = 54;
    var36 = var36 / var45;
    var36 = 68;
    var38 = var38 + var29;
    var38 = 72;
    var49 = var49 * var34;
    var49 = 17;
    var21 = var21 * var45;
    var21 = 54;
    var22 = var22 - var19;
    var22 = 89;
    var36 = var36 / var34;
    var36 = 64;
    var29 = var29 - var40;
    var29 = 25;
    var2 = var2 / var4;
    var2 = 24;
    var30 = var30 * var36;
    var30 = 81;
    var49 = var49 + var19;
    var49 = 90;
    var20 = var20 / var46;
    var20 = 68;
    var48 = var48 - var16;
    var48 = 51;
    var39 = var39 / var32;
    var39 = 70;
    var5 = var5 * var26;
    var5 = 76;
    var19 = var19 + var2;
    var19 = 33;
    var1 = var1 - var40;
    var1 = 8;
    var20 = var20 * var7;
    var20 = 21;
    var41 = var41 + var2;
    var41 = 97;
    var29 = var29 - var46;
    var29 = 28;
    var42 = var42 - var18;
    var42 = 60;
    var32 = var32 / var40;
    var32 = 4;
    var28 = var28 / var13;
    var28 = 3;
    var11 = var11 - var37;
    var11 = 29;
    var18 = var18 * var1;
    var18 = 30;
    var1 = var1 * var5;
    var1 = 25;
    var28 = var28 / var25;
    var28 = 90;
    var43 = var43 + var40;
    var43 = 45;
    var16 = var16 + var45;
    var16 = 18;
    var26 = var26 * var1;
    var26 = 38;
    var46 = var46 * var44;
    var46 = 30;
    var44 = var44 + var19;
    var44 = 78;
    var24 = var24 - var5;
    var24 = 69;
    var38 = var38 + var4;
    var38 = 37;
    var21 = var21 / var14;
    var21 = 100;
    var26 = var26 - var14;
    var26 = 63;
    var46 = var46 * var31;
    var46 = 7;
    var5 = var5 + var36;
    var5 = 86;
    var27 = var27 / var23;
    var27 = 41;
    var31 = var31 / var26;
    var31 = 54;
    var10 = var10 - var29;
    var10 = 75;
    var39 = var39 * var1;
    var39 = 17;
    var25 = var25 / var25;
    var25 = 36;
    var18 = var18 * var36;
    var18 = 43;
    var38 = var38 + var18;
    var38 = 41;
    var21 = var21 - var2;
    var21 = 31;
    var6 = var6 - var3;
    var6 = 30;
    var23 = var23 * var28;
    var23 = 97;
    var2 = var2 - var41;
    var2 = 9;
    var36 = var36 / var40;
    var36 = 6;
    var26 = var26 + var49;
    var26 = 33;
    var15 = var15 * var26;
    var15 = 49;
    var32 = var32 * var26;
    var32 = 71;
    var5 = var5 / var43;
    var5 = 21;
    var20 = var20 - var46;
    var20 = 15;
    var40 = var40 / var34;
    var40 = 70;
    var14 = var14 * var45;
    var14 = 32;
    var31 = var31 / var0;
    var31 = 13;
    var17 = var17 / var45;
    var17 = 86;
    var6 = var6 * var26;
    var6 = 71;
    var10 = var10 * var17;
    var10 = 67;
    var42 = var42 + var22;
    var42 = 75;
    var1 = var1 * var0;
    var1 = 61;
    var25 = var25 * var47;
    var25 = 75;
    var34 = var34 + var35;
    var34 = 97;
    var27 = var27 / var27;
    var27 = 9;
    var9 = var9 - var7;
    var9 = 66;
    var18 = var18 - var21;
    var18 = 41;
    var23 = var23 * var5;
    var23 = 75;
    var40 = var40 - var32;
    var40 = 28;
    var4 = var4 / var42;
    var4 = 57;
    var37 = var37 + var25;
    var37 = 93;
    var43 = var43 - var8;
    var43 = 43;
    var36 = var36 - var9;
    var36 = 6;
    var8 = var8 + var6;
    var8 = 99;
    var45 = var45 / var3;
    var45 = 13;
    var36 = var36 - var41;
    var36 = 17;
    var34 = var34 * var34;
    var34 = 56;
    var16 = var16 / var8;
    var16 = 37;
    var26 = var26 / var37;
    var26 = 49;
    var49 = var49 - var48;
    var49 = 52;
    var11 = var11 * var44;
    var11 = 74;
    var2 = var2 * var36;
    var2 = 85;
    var23 = var23 * var39;
    var23 = 2;
    var17 = var17 / var36;
    var17 = 45;
    var42 = var42 / var36;
    var42 = 99;
    var36 = var36 - var21;
    var36 = 26;
    var7 = var7 - var5;
    var7 = 16;
    var34 = var34 / var14;
    var34 = 94;
    var9 = var9 / var19;
    var9 = 64;
    var33 = var33 * var44;
    var33 = 86;
    var8 = var8 + var4;
    var8 = 34;
    var39 = var39 * var22;
    var39 = 73;
    var46 = var46 + var35;
    var46 = 66;
    var36 = var36 - var4;
    var36 = 63;
    var4 = var4 + var22;
    var4 = 20;
    var43 = var43 / var40;
    var43 = 79;
    var20 = var20 + var31;
    var20 = 32;
    var5 = var5 - var37;
    var5 = 52;
    var35 = var35 / var44;
    var35 = 89;
    var6 = var6 + var4;
    var6 = 97;
    var46 = var46 * var41;
    var46 = 62;
    var4 = var4 + var1;
    var4 = 22;
    var43 = var43 - var20;
    var43 = 45;
    var35 = var35 / var46;
    var35 = 90;
    var11 = var11 / var19;
    var11 = 16;
    var19 = var19 - var38;
    var19 = 29;
    var49 = var49 + var33;
    var49 = 17;
    var3 = var3 / var6;
    var3 = 48;
    var21 = var21 + var9;
    var21 = 65;
    var33 = var33 - var15;
    var33 = 0;
    var36 = var36 + var48;
    var36 = 13;
    var12 = var12 + var29;
    var12 = 86;
    var28 = var28 / var29;
    var28 = 23;
    var29 = var29 / var14;
    var29 = 30;
    var27 = var27 + var40;
    var27 = 77;
    var14 = var14 / var12;
    var14 = 97;
    var28 = var28 - var25;
    var28 = 77;
    var39 = var39 + var49;
    var39 = 90;
    var8 = var8 + var6;
    var8 = 41;
    var19 = var19 - var31;
    var19 = 29;
    var21 = var21 / var17;
    var21 = 56;
    var13 = var13 + var10;
    var13 = 66;
    var22 = var22 - var9;
    var22 = 33;
    var25 = var25 / var28;
    var25 = 50;
    var15 = var15 - var21;
    var15 = 34;
    var15 = var15 * var33;
    var15 = 49;
    var4 = var4 * var37;
    var4 = 68;
    var37 = var37 / var6;
    var37 = 46;
    var7 = var7 * var11;
    var7 = 58;
    var30 = var30 / var47;
    var30 = 97;
    var14 = var14 / var23;
    var14 = 22;
    var3 = var3 / var18;
    var3 = 63;
    var13 = var13 / var4;
    var13 = 7;
    var21 = var21 + var0;
    var21 = 91;
    var13 = var13 / var1;
    var13 = 52;
    var22 = var22 * var20;
    var22 = 66;
    var15 = var15 + var26;
    var15 = 23;
    var1 = var1 * var49;
    var1 = 34;
    var41 = var41 - var31;
    var41 = 49;
    var38 = var38 + var8;
    var38 = 90;
    var24 = var24 / var6;
    var24 = 26;
    var21 = var21 + var16;
    var21 = 73;
    var33 = var33 + var38;
    var33 = 79;
    var30 = var30 + var45;
    var30 = 98;
    var11 = var11 + var39;
    var11 = 15;
    var35 = var35 * var36;
    var35 = 28;
    var35 = var35 - var4;
    var35 = 82;
    var6 = var6 / var37;
    var6 = 45;
    var11 = var11 / var48;
    var11 = 68;
    var36 = var36 + var37;
    var36 = 27;
    var39 = var39 * var14;
    var39 = 31;
    var30 = var30 + var0;
    var30 = 43;
    var35 = var35 - var39;
    var35 = 39;
    var30 = var30 + var45;
    var30 = 7;
    var47 = var47 / var19;
    var47 = 25;
    var28 = var28 / var47;
    var28 = 72;
    var36 = var36 / var30;
    var36 = 68;
    var40 = var40 / var25;
    var40 = 36;
    var41 = var41 * var33;
    var41 = 70;
    var4 = var4 + var13;
    var4 = 45;
    var27 = var27 / var36;
    var27 = 64;
    var13 = var13 - var36;
    var13 = 63;
    var11 = var11 * var12;
    var11 = 47;
    var47 = var47 + var40;
    var47 = 74;
    var8 = var8 * var35;
    var8 = 28;
    var44 = var44 / var42;
    var44 = 6;
    var41 = var41 + var46;
    var41 = 96;
    var36 = var36 / var2;
    var36 = 75;
    var7 = var7 / var48;
    var7 = 20;
    var37 = var37 / var31;
    var37 = 77;
    var46 = var46 * var25;
    var46 = 41;
    var1 = var1 - var41;
    var1 = 92;
    var39 = var39 * var39;
    var39 = 92;
    var41 = var41 / var4;
    var41 = 30;
    var49 = var49 * var13;
    var49 = 79;
    var16 = var16 + var45;
    var16 = 49;
    var23 = var23 / var45;
    var23 = 59;
    var30 = var30 / var26;
    var30 = 73;
    var1 = var1 * var27;
    var1 = 56;
    var13 = var13 + var32;
    var13 = 16;
    var5 = var5 / var34;
    var5 = 56;
    var15 = var15 - var1;
    var15 = 41;
    var11 = var11 * var7;
    var11 = 50;
    var48 = var48 + var43;
    var48 = 23;
    var20 = var20 * var14;
    var20 = 77;
    var0 = var0 - var10;
    var0 = 30;
    var23 = var23 * var11;
    var23 = 97;
    var17 = var17 + var18;
    var17 = 7;
    var6 = var6 / var30;
    var6 = 0;
    var20 = var20 - var46;
    var20 = 82;
    var21 = var21 * var44;
    var21 = 26;
    var41 = var41 - var36;
    var41 = 8;
    var25 = var25 / var19;
    var25 = 20;
    var10 = var10 / var27;
    var10 = 94;
    var14 = var14 / var12;
    var14 = 35;
    var10 = var10 * var26;
    var10 = 12;
    var14 = var14 - var17;
    var14 = 15;
    var22 = var22 * var14;
    var22 = 15;
    var35 = var35 + var12;
    var35 = 41;
    var9 = var9 - var2;
    var9 = 78;
    var9 = var9 - var41;
    var9 = 3;
    var49 = var49 * var39;
    var49 = 96;
    var13 = var13 * var34;
    var13 = 80;
    var18 = var18 - var47;
    var18 = 70;
    var25 = var25 + var44;
    var25 = 2;
    var37 = var37 * var44;
    var37 = 12;
    var15 = var15 * var25;
    var15 = 90;
    var47 = var47 * var32;
    var47 = 29;
    var27 = var27 + var46;
    var27 = 8;
    var4 = var4 / var3;
    var4 = 7;
    var45 = var45 + var3;
    var45 = 83;
    var37 = var37 - var37;
    var37 = 17;
    var13 = var13 * var35;
    var13 = 21;
    var25 = var25 / var9;
    var25 = 35;
    var18 = var18 - var5;
    var18 = 76;
    var25 = var25 + var40;
    var25 = 51;
    var0 = var0 - var41;
    var0 = 79;
    var33 = var33 - var38;
    var33 = 86;
    var49 = var49 / var28;
    var49 = 34;
    var29 = var29 - var37;
    var29 = 46;
    var32 = var32 + var10;
    var32 = 80;
    var8 = var8 * var7;
    var8 = 55;
    var37 = var37 + var26;
    var37 = 73;
    var19 = var19 * var28;
    var19 = 39;
    var49 = var49 + var32;
    var49 = 19;
    var8 = var8 * var35;
    var8 = 97;
    var40 = var40 * var30;
    var40 = 7;
    var37 = var37 - var30;
    var37 = 72;
    var29 = var29 - var34;
    var29 = 67;
    var16 = var16 - var39;
    var16 = 55;
    var47 = var47 * var35;
    var47 = 44;
    var34 = var34 * var30;
    var34 = 47;
    var19 = var19 * var48;
    var19 = 72;
    var45 = var45 + var43;
    var45 = 20;
    var11 = var11 * var23;
    var11 = 11;
    var15 = var15 / var14;
    var15 = 88;
    var42 = var42 * var31;
    var42 = 26;
    var46 = var46 / var47;
    var46 = 95;
    var15 = var15 - var7;
    var15 = 30;
    var27 = var27 * var44;
    var27 = 56;
    printf("%d", var0);
    printf("%d", var1);
    printf("%d", var2);
    printf("%d", var3);
    printf("%d", var4);
    printf("%d", var5);
    printf("%d", var6);
    printf("%d", var7);
    printf("%d", var8);
    printf("%d", var9);
    printf("%d", var10);
    printf("%d", var11);
    printf("%d", var12);
    printf("%d", var13);
    printf("%d", var14);
    printf("%d", var15);
    printf("%d", var16);
    printf("%d", var17);
    printf("%d", var18);
    printf("%d", var19);
    printf("%d", var20);
    printf("%d", var21);
    printf("%d", var22);
    printf("%d", var23);
    printf("%d", var24);
    printf("%d", var25);
    printf("%d", var26);
    printf("%d", var27);
    printf("%d", var28);
    printf("%d", var29);
    printf("%d", var30);
    printf("%d", var31);
    printf("%d", var32);
    printf("%d", var33);
    printf("%d", var34);
    printf("%d", var35);
    printf("%d", var36);
    printf("%d", var37);
    printf("%d", var38);
    printf("%d", var39);
    printf("%d", var40);
    printf("%d", var41);
    printf("%d", var42);
    printf("%d", var43);
    printf("%d", var44);
    printf("%d", var45);
    printf("%d", var46);
    printf("%d", var47);
    printf("%d", var48);
    printf("%d", var49);

    return 0;
}